<?xml version="1.0" encoding="UTF-8"?>
<BIF VERSION="0.3"  xmlns="http://www.cs.ubc.ca/labs/lci/fopi/ve/XMLBIFv0_3"
	xmlns:xsi="http://www.w3.org/2001/XMLSchema-instance"
	xsi:schemaLocation="http://www.cs.ubc.ca/labs/lci/fopi/ve/XMLBIFv0_3 http://www.cs.ubc.ca/labs/lci/fopi/ve/XMLBIFv0_3/XMLBIFv0_3.xsd">
<NETWORK>
<NAME>Untitled</NAME>
<PROPERTY>detailed = </PROPERTY>
<PROPERTY>short = </PROPERTY>

<VARIABLE TYPE="nature">
	<NAME>gripa</NAME>
	<OUTCOME>T</OUTCOME>
	<OUTCOME>F</OUTCOME>
	<PROPERTY>position = (7312.833984375, 5053.99072265625)</PROPERTY>
</VARIABLE>

<VARIABLE TYPE="nature">
	<NAME>abces</NAME>
	<OUTCOME>T</OUTCOME>
	<OUTCOME>F</OUTCOME>
	<PROPERTY>position = (7607.681640625, 5050.30517578125)</PROPERTY>
</VARIABLE>

<VARIABLE TYPE="nature">
	<NAME>febra</NAME>
	<OUTCOME>T</OUTCOME>
	<OUTCOME>F</OUTCOME>
	<PROPERTY>position = (7463.94384765625, 5225.37158203125)</PROPERTY>
</VARIABLE>

<VARIABLE TYPE="nature">
	<NAME>oboseala</NAME>
	<OUTCOME>T</OUTCOME>
	<OUTCOME>F</OUTCOME>
	<PROPERTY>position = (7327.57666015625, 5385.6953125)</PROPERTY>
</VARIABLE>

<VARIABLE TYPE="nature">
	<NAME>anorexie</NAME>
	<OUTCOME>T</OUTCOME>
	<OUTCOME>F</OUTCOME>
	<PROPERTY>position = (7637.16650390625, 5385.6953125)</PROPERTY>
</VARIABLE>

<DEFINITION>
	<FOR>gripa</FOR>
	<TABLE>0.1 0.9</TABLE>
</DEFINITION>

<DEFINITION>
	<FOR>abces</FOR>
	<TABLE>0.05 0.95</TABLE>
</DEFINITION>

<DEFINITION>
	<FOR>febra</FOR>
	<GIVEN>gripa</GIVEN>
	<GIVEN>abces</GIVEN>
	<TABLE>0.8 0.2 0.7 0.3 0.25 0.75 0.05 0.95</TABLE>
</DEFINITION>

<DEFINITION>
	<FOR>oboseala</FOR>
	<GIVEN>febra</GIVEN>
	<TABLE>0.6 0.4 0.2 0.8</TABLE>
</DEFINITION>

<DEFINITION>
	<FOR>anorexie</FOR>
	<GIVEN>febra</GIVEN>
	<TABLE>0.5 0.5 0.1 0.9</TABLE>
</DEFINITION>
</NETWORK>
</BIF>
